<?xml version="1.0"?>
<opencv_storage>
<cascade>
  <stageType>BOOST</stageType>
  <featureType>LBP</featureType>
  <height>26</height>
  <width>26</width>
  <stageParams>
    <boostType>GAB</boostType>
    <minHitRate>9.9383771419525146e-01</minHitRate>
    <maxFalseAlarm>4.1783377528190613e-01</maxFalseAlarm>
    <weightTrimRate>9.4999999999999996e-01</weightTrimRate>
    <maxDepth>1</maxDepth>
    <maxWeakCount>100</maxWeakCount></stageParams>
  <imgParams>
    <imgScaleLimit>5.0000000000000000e-01</imgScaleLimit>
    <imgScaleFactor>1.4142135381698608e+00</imgScaleFactor>
    <imgStepFactor>5.0000000000000000e-01</imgStepFactor>
    <imgRoundRate>4.</imgRoundRate></imgParams>
  <featureParams>
    <maxCatCount>256</maxCatCount>
    <featSize>1</featSize></featureParams>
  <stageNum>16</stageNum>
  <stages>
    <!-- stage 0 -->
    <_>
      <maxWeakCount>5</maxWeakCount>
      <stageThreshold>-1.4906663894653320e+00</stageThreshold>
      <weakClassifiers>
        <_>
          <internalNodes>
            0 -1 66 -792661296 -33554433 4224336 -707395617 -1 -1
            -109707265 -1</internalNodes>
          <leafValues>
            -6.5529745817184448e-01 9.0651124715805054e-01</leafValues></_>
        <_>
          <internalNodes>
            0 -1 38 -1 993770291 -1025 855847723 -12845057 -4194373
            -8388673 993247167</internalNodes>
          <leafValues>
            -5.7570242881774902e-01 7.9590189456939697e-01</leafValues></_>
        <_>
          <internalNodes>
            0 -1 134 -1006567682 1414594527 -67960833 -1 -657391618
            -16973825 -17105154 -1</internalNodes>
          <leafValues>
            -5.4616451263427734e-01 7.0511609315872192e-01</leafValues></_>
        <_>
          <internalNodes>
            0 -1 36 -285212809 -285278209 -1 -353173526 -8421545 -262145
            -140 -17367180</internalNodes>
          <leafValues>
            -5.2514785528182983e-01 5.5680489540100098e-01</leafValues></_>
        <_>
          <internalNodes>
            0 -1 162 721293149 786055167 -1073741825 -1091109889 -49153
            -1 -81921 -16842753</internalNodes>
          <leafValues>
            -4.3963477015495300e-01 4.9220234155654907e-01</leafValues></_></weakClassifiers></_>
    <!-- stage 1 -->
    <_>
      <maxWeakCount>6</maxWeakCount>
      <stageThreshold>-1.2488532066345215e+00</stageThreshold>
      <weakClassifiers>
        <_>
          <internalNodes>
            0 -1 62 -21829 -21825 1073556139 -21846 -21573 -21825 -21846
            -21846</internalNodes>
          <leafValues>
            -5.2777069807052612e-01 8.9296847581863403e-01</leafValues></_>
        <_>
          <internalNodes>
            0 -1 43 -178979504 -2752524 -33554956 -9 1968570357 -2754563
            -33554945 -1</internalNodes>
          <leafValues>
            -6.3648891448974609e-01 7.3163658380508423e-01</leafValues></_>
        <_>
          <internalNodes>
            0 -1 112 -1 -2049 -49153 -1 1006570155 -67144705 201261739
            1073687551</internalNodes>
          <leafValues>
            -6.1386924982070923e-01 5.7725036144256592e-01</leafValues></_>
        <_>
          <internalNodes>
            0 -1 168 -137 -285212673 -1 -1426391170 -171 -1 -33557388
            -318832652</internalNodes>
          <leafValues>
            -5.5589121580123901e-01 5.2577090263366699e-01</leafValues></_>
        <_>
          <internalNodes>
            0 -1 98 -285282508 -16973953 -69700 -286333057 -655500
            -525315 -16978144 -16781787</internalNodes>
          <leafValues>
            -5.3168320655822754e-01 4.4354617595672607e-01</leafValues></_>
        <_>
          <internalNodes>
            0 -1 25 -285741057 -352387073 -16777217 -353173638
            2147450695 -1 -1083532 -17367049</internalNodes>
          <leafValues>
            -4.4004145264625549e-01 4.5966425538063049e-01</leafValues></_></weakClassifiers></_>
    <!-- stage 2 -->
    <_>
      <maxWeakCount>8</maxWeakCount>
      <stageThreshold>-1.1852284669876099e+00</stageThreshold>
      <weakClassifiers>
        <_>
          <internalNodes>
            0 -1 22 -1 1073721343 -1073741825 724512559 -1 -1 -1
            1073741823</internalNodes>
          <leafValues>
            -5.5573594570159912e-01 8.0491679906845093e-01</leafValues></_>
        <_>
          <internalNodes>
            0 -1 155 184487935 1006600191 -1 -1 2147438591 -32769 -1 -1</internalNodes>
          <leafValues>
            -5.3124588727951050e-01 7.0910334587097168e-01</leafValues></_>
        <_>
          <internalNodes>
            0 -1 82 -2101518 -33558786 -169480456 -4914 -1048654
            -1052674 -277485024 -7646</internalNodes>
          <leafValues>
            -5.4241722822189331e-01 5.6751525402069092e-01</leafValues></_>
        <_>
          <internalNodes>
            0 -1 127 -50334496 -992150276 -2060 -50331649 -50332432
            -654508355 -6 -16777217</internalNodes>
          <leafValues>
            -6.5744554996490479e-01 4.1530612111091614e-01</leafValues></_>
        <_>
          <internalNodes>
            0 -1 8 -1 -33 -1916256 -253562318 -2621609 -524505
            -103415984 -526733</internalNodes>
          <leafValues>
            -5.3520905971527100e-01 4.3212044239044189e-01</leafValues></_>
        <_>
          <internalNodes>
            0 -1 123 -139 -2359305 -1 -13 -555823619 -1 -401923 -834219</internalNodes>
          <leafValues>
            -3.8644367456436157e-01 5.3904092311859131e-01</leafValues></_>
        <_>
          <internalNodes>
            0 -1 150 -33554561 1937243967 -1 1895825211 -139 2004877183
            -131073 1946157055</internalNodes>
          <leafValues>
            -4.2654451727867126e-01 3.8964739441871643e-01</leafValues></_>
        <_>
          <internalNodes>
            0 -1 101 -285233625 -1367445637 -285217113 -285216770
            -16810633 -67174531 -134217873 -4097</internalNodes>
          <leafValues>
            -3.9195090532302856e-01 4.0973222255706787e-01</leafValues></_></weakClassifiers></_>
    <!-- stage 3 -->
    <_>
      <maxWeakCount>8</maxWeakCount>
      <stageThreshold>-1.1752026081085205e+00</stageThreshold>
      <weakClassifiers>
        <_>
          <internalNodes>
            0 -1 58 -268457429 -4177 603922995 -1 -67125313 -8273 -1025
            -1</internalNodes>
          <leafValues>
            -3.9959743618965149e-01 8.2870656251907349e-01</leafValues></_>
        <_>
          <internalNodes>
            0 -1 55 -715786764 -44960268 -704784899 -33565187 -581566465
            -3 -570425857 -1</internalNodes>
          <leafValues>
            -5.5324637889862061e-01 6.4106279611587524e-01</leafValues></_>
        <_>
          <internalNodes>
            0 -1 97 -1 -536875009 -1077937153 -536870913 167706879 -4609
            201261307 1577010431</internalNodes>
          <leafValues>
            -6.4615380764007568e-01 4.9379566311836243e-01</leafValues></_>
        <_>
          <internalNodes>
            0 -1 88 -285212673 -1 -1 -1 -4097 -1 -285216769 -390402305</internalNodes>
          <leafValues>
            -3.8737240433692932e-01 6.6317254304885864e-01</leafValues></_>
        <_>
          <internalNodes>
            0 -1 179 -268435457 -286261265 -268435714 -285278210
            -134217865 -285212673 -184552076 -185073673</internalNodes>
          <leafValues>
            -4.4373920559883118e-01 4.8889109492301941e-01</leafValues></_>
        <_>
          <internalNodes>
            0 -1 1 -268435465 250540031 -402915329 -20489 1174107639
            73920503 1106466163 1174403063</internalNodes>
          <leafValues>
            -5.2157020568847656e-01 3.7172359228134155e-01</leafValues></_>
        <_>
          <internalNodes>
            0 -1 28 -1 -16777345 -16777218 -251985926 -570425513
            -8401033 -16777356 -151519241</internalNodes>
          <leafValues>
            -3.9030316472053528e-01 4.6095377206802368e-01</leafValues></_>
        <_>
          <internalNodes>
            0 -1 139 1078248654 1364516351 -860058145 -571197569
            -995310100 -16984083 -454111569 -4194321</internalNodes>
          <leafValues>
            -4.9066138267517090e-01 3.4085583686828613e-01</leafValues></_></weakClassifiers></_>
    <!-- stage 4 -->
    <_>
      <maxWeakCount>9</maxWeakCount>
      <stageThreshold>-1.4061629772186279e+00</stageThreshold>
      <weakClassifiers>
        <_>
          <internalNodes>
            0 -1 71 1060845363 1069498303 -1073774593 -1 1073709055
            -1073741825 -1073741825 -1</internalNodes>
          <leafValues>
            -3.8737273216247559e-01 7.9466867446899414e-01</leafValues></_>
        <_>
          <internalNodes>
            0 -1 64 -1 -4113 1465773038 -34608466 -67108881 -1 -2101362
            -3151218</internalNodes>
          <leafValues>
            -4.5134216547012329e-01 7.0665532350540161e-01</leafValues></_>
        <_>
          <internalNodes>
            0 -1 132 -599720198 1549066239 -13568001 -8912897 -34537474
            -2232321 -67961345 -1025</internalNodes>
          <leafValues>
            -5.9795492887496948e-01 4.4053602218627930e-01</leafValues></_>
        <_>
          <internalNodes>
            0 -1 79 -268439633 27459519 -134218241 -526337 2012217071
            67106815 -2049 -134217729</internalNodes>
          <leafValues>
            -4.9214494228363037e-01 4.7339510917663574e-01</leafValues></_>
        <_>
          <internalNodes>
            0 -1 165 -169 1467972959 -159384577 276034431 -142640875
            1562344785 -17056961 1920991103</internalNodes>
          <leafValues>
            -4.8926758766174316e-01 4.0888807177543640e-01</leafValues></_>
        <_>
          <internalNodes>
            0 -1 36 -1 -286588929 -1 -352911362 -163 -1 -268 -17367052</internalNodes>
          <leafValues>
            -4.6869188547134399e-01 3.9567774534225464e-01</leafValues></_>
        <_>
          <internalNodes>
            0 -1 34 2136993791 1997644288 1597505535 18941730 2138308607
            -14811137 2136342527 2131230695</internalNodes>
          <leafValues>
            -4.4898894429206848e-01 3.6845874786376953e-01</leafValues></_>
        <_>
          <internalNodes>
            0 -1 157 -269486081 -960037265 -269759814 -859246902
            -301991941 -891422273 -1057664880 -927727886</internalNodes>
          <leafValues>
            -4.7712057828903198e-01 3.2400992512702942e-01</leafValues></_>
        <_>
          <internalNodes>
            0 -1 142 -2001716875 -65537 -1 -65539 -1110614155 -1
            -269721603 -240139</internalNodes>
          <leafValues>
            -4.1294440627098083e-01 3.6030966043472290e-01</leafValues></_></weakClassifiers></_>
    <!-- stage 5 -->
    <_>
      <maxWeakCount>10</maxWeakCount>
      <stageThreshold>-1.2066389322280884e+00</stageThreshold>
      <weakClassifiers>
        <_>
          <internalNodes>
            0 -1 115 -6145 -67108865 -1025 -1 2004829055 -8425601 -32769
            -32897</internalNodes>
          <leafValues>
            -2.1885348856449127e-01 8.2517963647842407e-01</leafValues></_>
        <_>
          <internalNodes>
            0 -1 65 -1 -1279544429 -2132481 868168627 -1077936129
            -1078214725 -1 1002156987</internalNodes>
          <leafValues>
            -5.9599995613098145e-01 5.1126116514205933e-01</leafValues></_>
        <_>
          <internalNodes>
            0 -1 24 -14 -526384 -545329414 -258 -11403280 -11410096 -2
            -2864</internalNodes>
          <leafValues>
            -5.4325127601623535e-01 4.3624177575111389e-01</leafValues></_>
        <_>
          <internalNodes>
            0 -1 140 -50331906 -858981154 -33 -33816577 -1048577
            -118572033 -4194305 -1025</internalNodes>
          <leafValues>
            -4.7634676098823547e-01 4.4762122631072998e-01</leafValues></_>
        <_>
          <internalNodes>
            0 -1 32 -1432174669 -1360347137 -524427 -1342255241
            -1410663425 -285278209 -536870913 -1</internalNodes>
          <leafValues>
            -4.0820297598838806e-01 5.0568974018096924e-01</leafValues></_>
        <_>
          <internalNodes>
            0 -1 99 -65548 -16973825 -268779524 -285282305 -537526411
            -655361 -100668620 -2</internalNodes>
          <leafValues>
            -5.3931611776351929e-01 3.1763303279876709e-01</leafValues></_>
        <_>
          <internalNodes>
            0 -1 170 -536879273 1465352023 -357042177 1302387 1501250564
            1410814996 -318772725 1349779327</internalNodes>
          <leafValues>
            -4.6538144350051880e-01 3.5247111320495605e-01</leafValues></_>
        <_>
          <internalNodes>
            0 -1 131 -1348403339 -65569 -1 -196738 231567349 -1
            -1107468803 -232076</internalNodes>
          <leafValues>
            -4.4886913895606995e-01 3.6948442459106445e-01</leafValues></_>
        <_>
          <internalNodes>
            0 -1 9 -1048769 -161 -83955614 -1334775182 -9044188
            -58859721 -77210544 -193462701</internalNodes>
          <leafValues>
            -5.0915884971618652e-01 2.9551899433135986e-01</leafValues></_>
        <_>
          <internalNodes>
            0 -1 46 -1360036041 -295256198 -524291 -16851282 1873768309
            -1 -823175692 -16845324</internalNodes>
          <leafValues>
            -4.2163595557212830e-01 2.8908243775367737e-01</leafValues></_></weakClassifiers></_>
    <!-- stage 6 -->
    <_>
      <maxWeakCount>12</maxWeakCount>
      <stageThreshold>-1.1986814737319946e+00</stageThreshold>
      <weakClassifiers>
        <_>
          <internalNodes>
            0 -1 42 -2118997 -538989825 1878502335 -152833 -20561
            -4215874 -20565 -5441</internalNodes>
          <leafValues>
            -2.9131820797920227e-01 7.7268332242965698e-01</leafValues></_>
        <_>
          <internalNodes>
            0 -1 87 -65 -527369 -1 -1 -268439617 -1 -272633857
            -1598364929</internalNodes>
          <leafValues>
            -4.0061482787132263e-01 5.8697074651718140e-01</leafValues></_>
        <_>
          <internalNodes>
            0 -1 2 -806354945 35848111 1543495167 -269488389 68153343
            196591 1095201911 1163393015</internalNodes>
          <leafValues>
            -4.9826824665069580e-01 4.4070154428482056e-01</leafValues></_>
        <_>
          <internalNodes>
            0 -1 102 1089716479 2147483567 1467118591 2147220315
            16056573 -40961 -84148225 -1048833</internalNodes>
          <leafValues>
            -4.7305017709732056e-01 4.2907679080963135e-01</leafValues></_>
        <_>
          <internalNodes>
            0 -1 41 -145359040 -4194324 -33685507 -1077 1430650869
            -262213 -524305 -1089</internalNodes>
          <leafValues>
            -6.0056966543197632e-01 3.1539323925971985e-01</leafValues></_>
        <_>
          <internalNodes>
            0 -1 175 -1 -269484049 -1 -83886082 -9 -268435457 -134744588
            -184549386</internalNodes>
          <leafValues>
            -3.8245895504951477e-01 4.5860087871551514e-01</leafValues></_>
        <_>
          <internalNodes>
            0 -1 31 -83886130 -1026621746 -1056817 -271582225 -143928512
            1078248964 -10485937 1330642767</internalNodes>
          <leafValues>
            -5.0827562808990479e-01 2.8203743696212769e-01</leafValues></_>
        <_>
          <internalNodes>
            0 -1 149 -16900747 -598411 -65537 -65537 -33718923 -3
            -6389763 -32769</internalNodes>
          <leafValues>
            -3.8008466362953186e-01 3.8531434535980225e-01</leafValues></_>
        <_>
          <internalNodes>
            0 -1 100 -285235674 -497025153 -16864594 -285216850 -33497
            -25165825 -4828 -4569</internalNodes>
          <leafValues>
            -4.7244921326637268e-01 2.8863424062728882e-01</leafValues></_>
        <_>
          <internalNodes>
            0 -1 153 -50932492 -587432715 -320869123 -856032003
            -83981128 -17311779 -1465120616 -1426068769</internalNodes>
          <leafValues>
            -3.4176239371299744e-01 3.7893426418304443e-01</leafValues></_>
        <_>
          <internalNodes>
            0 -1 29 -16777217 -1048817 -419500302 -218956062 -699400889
            -10498299 -990423820 -168296461</internalNodes>
          <leafValues>
            -4.0932708978652954e-01 3.0844566226005554e-01</leafValues></_>
        <_>
          <internalNodes>
            0 -1 107 3153264 2112897020 -1073790979 -1073999873
            -1900462596 -204867 -1073987587 799542328</internalNodes>
          <leafValues>
            -4.9916866421699524e-01 2.5298550724983215e-01</leafValues></_></weakClassifiers></_>
    <!-- stage 7 -->
    <_>
      <maxWeakCount>12</maxWeakCount>
      <stageThreshold>-1.2442842721939087e+00</stageThreshold>
      <weakClassifiers>
        <_>
          <internalNodes>
            0 -1 110 -1 -1 -1048577 -32785 -67126529 -1 275972351
            2138535799</internalNodes>
          <leafValues>
            -3.9665499329566956e-01 7.0059794187545776e-01</leafValues></_>
        <_>
          <internalNodes>
            0 -1 70 -1 -1644167265 -8391681 -1073741825 -268440401
            -1912631377 -1342198865 -1930428497</internalNodes>
          <leafValues>
            -3.0714106559753418e-01 6.7239135503768921e-01</leafValues></_>
        <_>
          <internalNodes>
            0 -1 3 -1 -287309825 -2097153 -1 1342177279 133169151
            2013263863 2013263871</internalNodes>
          <leafValues>
            -4.6273261308670044e-01 4.4372403621673584e-01</leafValues></_>
        <_>
          <internalNodes>
            0 -1 116 -33554433 2138439543 -2132214017 2138169215
            -60751874 -9371785 -328925442 -14614529</internalNodes>
          <leafValues>
            -3.7380197644233704e-01 4.8227018117904663e-01</leafValues></_>
        <_>
          <internalNodes>
            0 -1 11 -285241685 -805371137 -269021425 -805368065
            -67435741 -805367809 -47349 -1</internalNodes>
          <leafValues>
            -4.2465016245841980e-01 4.1221612691879272e-01</leafValues></_>
        <_>
          <internalNodes>
            0 -1 171 -8409281 37217083 -513 1786506847 1061102891
            722084659 -1090801873 -10485761</internalNodes>
          <leafValues>
            -3.7642017006874084e-01 4.1259387135505676e-01</leafValues></_>
        <_>
          <internalNodes>
            0 -1 77 -2076943019 1047805821 -1 -1078427651 -134348803 -1
            -131075 -1162280963</internalNodes>
          <leafValues>
            -4.6289882063865662e-01 3.3190938830375671e-01</leafValues></_>
        <_>
          <internalNodes>
            0 -1 104 -201330897 1946154903 2013265919 1946157047
            1904177533 1904180543 -185799425 -218103825</internalNodes>
          <leafValues>
            -4.0195053815841675e-01 3.2658874988555908e-01</leafValues></_>
        <_>
          <internalNodes>
            0 -1 48 -823201829 -822171393 -537931905 -805310737
            1275087488 -925630225 1331580751 1340032079</internalNodes>
          <leafValues>
            -3.5999724268913269e-01 3.5904094576835632e-01</leafValues></_>
        <_>
          <internalNodes>
            0 -1 27 -1048577 -2049 -252776706 -220004622 2062548991
            -5249 74958036 -134742025</internalNodes>
          <leafValues>
            -3.8622936606407166e-01 3.2773125171661377e-01</leafValues></_>
        <_>
          <internalNodes>
            0 -1 158 -524293 -892143793 -523373840 -389940304 -906040325
            -857210881 -992653072 -1057753357</internalNodes>
          <leafValues>
            -4.2615398764610291e-01 2.8116691112518311e-01</leafValues></_>
        <_>
          <internalNodes>
            0 -1 40 -6875976 -576748412 1061103385 -36717124 2080182760
            -1179699978 1073690811 1069490343</internalNodes>
          <leafValues>
            -4.2526742815971375e-01 2.7758398652076721e-01</leafValues></_></weakClassifiers></_>
    <!-- stage 8 -->
    <_>
      <maxWeakCount>13</maxWeakCount>
      <stageThreshold>-1.2123581171035767e+00</stageThreshold>
      <weakClassifiers>
        <_>
          <internalNodes>
            0 -1 145 183635199 2147450879 788475903 -32769 -61697 -32769
            -268554241 -32769</internalNodes>
          <leafValues>
            -3.3662575483322144e-01 6.8765002489089966e-01</leafValues></_>
        <_>
          <internalNodes>
            0 -1 113 -1 -1 -2097153 -1 -1 -257 -1 -2781</internalNodes>
          <leafValues>
            -2.4583046138286591e-01 7.5723844766616821e-01</leafValues></_>
        <_>
          <internalNodes>
            0 -1 44 1899230207 858911667 1975503327 -1 -1281 -1077936129
            2147475455 -1</internalNodes>
          <leafValues>
            -3.4703150391578674e-01 5.2751779556274414e-01</leafValues></_>
        <_>
          <internalNodes>
            0 -1 159 -193 1937768319 -18874625 1920466943 -187
            2136440670 -67108865 1937768319</internalNodes>
          <leafValues>
            -4.8668676614761353e-01 4.0057688951492310e-01</leafValues></_>
        <_>
          <internalNodes>
            0 -1 6 -285216849 16712207 -565501 -813757905 1174095189
            211747877 1433402741 -1</internalNodes>
          <leafValues>
            -4.4330856204032898e-01 3.3752074837684631e-01</leafValues></_>
        <_>
          <internalNodes>
            0 -1 111 -581042241 -572662305 -70912001 -580911105
            -1073689464 -570557185 1140949056 -572664369</internalNodes>
          <leafValues>
            -3.6731311678886414e-01 3.8790237903594971e-01</leafValues></_>
        <_>
          <internalNodes>
            0 -1 61 -1426129411 -1095180801 -25089 -1078132737 -3 -1
            -262147 -1078198273</internalNodes>
          <leafValues>
            -3.2914894819259644e-01 4.2087146639823914e-01</leafValues></_>
        <_>
          <internalNodes>
            0 -1 52 -553847564 -15916 -536870913 -4197131 -33647184 -1
            -17891915 -1073794031</internalNodes>
          <leafValues>
            -3.7675562500953674e-01 3.5467165708541870e-01</leafValues></_>
        <_>
          <internalNodes>
            0 -1 138 -50332424 -867633964 -47458256 -10747905 -587989830
            -922960148 -80218886 -16777217</internalNodes>
          <leafValues>
            -4.3535399436950684e-01 2.8831037878990173e-01</leafValues></_>
        <_>
          <internalNodes>
            0 -1 26 -1 -85983361 -167776257 -218432518 2145382223 -145
            -268435486 -185073673</internalNodes>
          <leafValues>
            -3.1196507811546326e-01 3.7518358230590820e-01</leafValues></_>
        <_>
          <internalNodes>
            0 -1 80 -168297474 -797901450 -170721476 -571460592
            1433796591 15758833 1601388299 1162167571</internalNodes>
          <leafValues>
            -4.4061571359634399e-01 2.5662168860435486e-01</leafValues></_>
        <_>
          <internalNodes>
            0 -1 108 70261520 -245763 -1073774593 -1107476487
            -1078149379 -180226 -1091158017 805243436</internalNodes>
          <leafValues>
            -3.9627441763877869e-01 2.7461689710617065e-01</leafValues></_>
        <_>
          <internalNodes>
            0 -1 94 -285216989 -2030571593 -547038 -419435542 -671092937
            -839122945 -157 -17</internalNodes>
          <leafValues>
            -3.9212155342102051e-01 2.8705930709838867e-01</leafValues></_></weakClassifiers></_>
    <!-- stage 9 -->
    <_>
      <maxWeakCount>15</maxWeakCount>
      <stageThreshold>-1.3071361780166626e+00</stageThreshold>
      <weakClassifiers>
        <_>
          <internalNodes>
            0 -1 74 -21829 -20737 2013113023 -20737 -17477 -1 1065329186
            -21846</internalNodes>
          <leafValues>
            -3.4092661738395691e-01 6.6420853137969971e-01</leafValues></_>
        <_>
          <internalNodes>
            0 -1 143 -324993026 -31391846 -1 -5177456 -392114177
            -21430273 -720897 -100630721</internalNodes>
          <leafValues>
            -3.7163099646568298e-01 5.8000248670578003e-01</leafValues></_>
        <_>
          <internalNodes>
            0 -1 53 -570425359 -705298475 -571091115 -704774147
            -538968069 -1 -805306369 -570425345</internalNodes>
          <leafValues>
            -3.8212698698043823e-01 4.7624018788337708e-01</leafValues></_>
        <_>
          <internalNodes>
            0 -1 160 -285274609 1602162191 -287309825 -1 249498636
            -1896935930 184485902 -287314177</internalNodes>
          <leafValues>
            -4.2410737276077271e-01 3.7454688549041748e-01</leafValues></_>
        <_>
          <internalNodes>
            0 -1 124 -25755659 -2162697 -524289 -196610 350093301
            -1048577 -318802435 -232076</internalNodes>
          <leafValues>
            -4.4850403070449829e-01 3.3949092030525208e-01</leafValues></_>
        <_>
          <internalNodes>
            0 -1 0 -1 -269746193 -1025 -1048577 1207957503 1340080031
            2013230327 1476392959</internalNodes>
          <leafValues>
            -4.1914099454879761e-01 3.2709398865699768e-01</leafValues></_>
        <_>
          <internalNodes>
            0 -1 168 -1 -268435593 -1 -84475910 -11 -268443649 -2572
            -17104908</internalNodes>
          <leafValues>
            -3.9627295732498169e-01 3.4767067432403564e-01</leafValues></_>
        <_>
          <internalNodes>
            0 -1 89 -268442717 61600691 -236981469 -403048525 2011034047
            132118519 -167775745 -134219793</internalNodes>
          <leafValues>
            -3.7338104844093323e-01 3.3508980274200439e-01</leafValues></_>
        <_>
          <internalNodes>
            0 -1 18 -385 -11010689 -669852102 268497522 -61342460
            -13386667 -126682876 -129959310</internalNodes>
          <leafValues>
            -4.7810837626457214e-01 2.3539024591445923e-01</leafValues></_>
        <_>
          <internalNodes>
            0 -1 95 3153264 -1003529 -4341761 -1073922563 -1073954827
            -4194305 -1074249729 -1342501189</internalNodes>
          <leafValues>
            -3.0438503623008728e-01 3.6165288090705872e-01</leafValues></_>
        <_>
          <internalNodes>
            0 -1 173 -234885069 4243521 -842439516 -992680714 2143270839
            1203429619 -9439273 -268438569</internalNodes>
          <leafValues>
            -3.2617893815040588e-01 3.2404658198356628e-01</leafValues></_>
        <_>
          <internalNodes>
            0 -1 56 -170527728 1360336128 2004334896 365689093
            -235801196 -1780910715 -369825624 12187309</internalNodes>
          <leafValues>
            -4.3704569339752197e-01 2.3993144929409027e-01</leafValues></_>
        <_>
          <internalNodes>
            0 -1 75 750653269 -1361675393 -1076375553 -1346486273
            -1108377739 -1 -541065603 -1409351697</internalNodes>
          <leafValues>
            -3.8269534707069397e-01 2.7209991216659546e-01</leafValues></_>
        <_>
          <internalNodes>
            0 -1 118 -33554465 1978789495 -1443115142 368180703
            -1806379780 -264940107 -1604980994 118159</internalNodes>
          <leafValues>
            -3.3223289251327515e-01 3.1328111886978149e-01</leafValues></_>
        <_>
          <internalNodes>
            0 -1 50 -1430340301 -1359545345 -265 -269680643 -1342177349
            -1342177281 805273591 -270533131</internalNodes>
          <leafValues>
            -3.2049611210823059e-01 3.0095854401588440e-01</leafValues></_></weakClassifiers></_>
    <!-- stage 10 -->
    <_>
      <maxWeakCount>16</maxWeakCount>
      <stageThreshold>-8.9289665222167969e-01</stageThreshold>
      <weakClassifiers>
        <_>
          <internalNodes>
            0 -1 137 -1060045570 1347746270 -575602818 -13500417
            -101384193 -582712134 -67896321 -786433</internalNodes>
          <leafValues>
            -9.6874073147773743e-02 7.9379099607467651e-01</leafValues></_>
        <_>
          <internalNodes>
            0 -1 78 866891571 -1077938689 939341105 -3589 -1077938177
            -1074003971 -1073748033 -81</internalNodes>
          <leafValues>
            -3.5933098196983337e-01 5.8026671409606934e-01</leafValues></_>
        <_>
          <internalNodes>
            0 -1 14 -11011073 -100602240 -549069473 1073802254 -11010049
            -11341861 1532362751 -12189697</internalNodes>
          <leafValues>
            -3.9779993891716003e-01 4.5767280459403992e-01</leafValues></_>
        <_>
          <internalNodes>
            0 -1 169 -67108993 1400887131 -787225601 812905331
            -150995123 1397183763 -5244229 1937505247</internalNodes>
          <leafValues>
            -4.0838852524757385e-01 4.0439176559448242e-01</leafValues></_>
        <_>
          <internalNodes>
            0 -1 114 -67113361 -209715297 -486543617 -205521153
            -245665169 1937243775 -134217745 -1</internalNodes>
          <leafValues>
            -3.4734261035919189e-01 4.6203216910362244e-01</leafValues></_>
        <_>
          <internalNodes>
            0 -1 84 -864625163 -766476457 -527393 -1154419745 -68157955
            -6296645 -65539 -1430717475</internalNodes>
          <leafValues>
            -4.4841596484184265e-01 2.9573410749435425e-01</leafValues></_>
        <_>
          <internalNodes>
            0 -1 148 -13 -147850333 -134221519 -177998959 -1081
            -1915291739 -201345647 -168560649</internalNodes>
          <leafValues>
            -2.7905336022377014e-01 4.8036602139472961e-01</leafValues></_>
        <_>
          <internalNodes>
            0 -1 15 -273682517 -1366628370 1065222002 -269499666
            1161820159 264630191 397373911 1207955711</internalNodes>
          <leafValues>
            -3.9411529898643494e-01 3.1845363974571228e-01</leafValues></_>
        <_>
          <internalNodes>
            0 -1 135 -665334821 1610579963 -1167110433 2147447263
            -8197125 -71676961 -67646210 2079813599</internalNodes>
          <leafValues>
            -3.1372448801994324e-01 3.8366436958312988e-01</leafValues></_>
        <_>
          <internalNodes>
            0 -1 17 -30216590 -67902758 -556601889 -44561 -616239808
            -74522493 -11145389 -1537</internalNodes>
          <leafValues>
            -5.4972398281097412e-01 2.2311593592166901e-01</leafValues></_>
        <_>
          <internalNodes>
            0 -1 151 69997937 -98537 -270593 -33620485 -1188256268 -1025
            -1359208964 268178685</internalNodes>
          <leafValues>
            -4.4471970200538635e-01 2.2282186150550842e-01</leafValues></_>
        <_>
          <internalNodes>
            0 -1 176 -12305 -419234137 -80480398 -366805166 -537923609
            -829554757 -234892044 -185073674</internalNodes>
          <leafValues>
            -3.5730227828025818e-01 2.9367315769195557e-01</leafValues></_>
        <_>
          <internalNodes>
            0 -1 13 -212075314 -496568882 1361422703 -412105241
            -219486268 1410398864 1709962831 1330639435</internalNodes>
          <leafValues>
            -3.8610875606536865e-01 2.6458397507667542e-01</leafValues></_>
        <_>
          <internalNodes>
            0 -1 93 -285741278 -1464410157 -136597600 -291574834
            -714415721 -285479586 -135336026 -17039361</internalNodes>
          <leafValues>
            -4.1026103496551514e-01 2.5417339801788330e-01</leafValues></_>
        <_>
          <internalNodes>
            0 -1 7 -495719685 39028351 2112506946 -20200705 1076969744
            2027498403 -184158460 -34210817</internalNodes>
          <leafValues>
            -3.5662522912025452e-01 2.7910706400871277e-01</leafValues></_>
        <_>
          <internalNodes>
            0 -1 120 204489748 -2352132 1000216445 -1073992195
            -1465024583 -188932 753417464 781716536</internalNodes>
          <leafValues>
            -4.6805623173713684e-01 2.0481112599372864e-01</leafValues></_></weakClassifiers></_>
    <!-- stage 11 -->
    <_>
      <maxWeakCount>17</maxWeakCount>
      <stageThreshold>-3.6560815572738647e-01</stageThreshold>
      <weakClassifiers>
        <_>
          <internalNodes>
            0 -1 63 -238028338 -1115154 1157681356 1374200012
            -1082655860 -1074806870 -1855096 -204543028</internalNodes>
          <leafValues>
            1.9957368075847626e-01 8.9600956439971924e-01</leafValues></_>
        <_>
          <internalNodes>
            0 -1 91 -285278284 -455804993 -918892596 -386079098
            -1157632779 -67649665 -1050169788 -822089041</internalNodes>
          <leafValues>
            -2.7945321798324585e-01 6.3835287094116211e-01</leafValues></_>
        <_>
          <internalNodes>
            0 -1 67 -573253516 -48950987 -5022249 -659043 -306325259
            -2752795 -1142363908 -1111624203</internalNodes>
          <leafValues>
            -3.4840047359466553e-01 5.1692605018615723e-01</leafValues></_>
        <_>
          <internalNodes>
            0 -1 20 -1216528513 670377807 -738034817 1073032031
            -226362438 -1568045361 -670761989 -3440769</internalNodes>
          <leafValues>
            -4.9062684178352356e-01 3.4197989106178284e-01</leafValues></_>
        <_>
          <internalNodes>
            0 -1 146 1089619199 1476084191 -19998305 1004429723
            -122108449 -88345713 -119501841 -2102353</internalNodes>
          <leafValues>
            -3.9947953820228577e-01 3.9196041226387024e-01</leafValues></_>
        <_>
          <internalNodes>
            0 -1 164 -77595681 1937725715 -593897473 853253531 -4457884
            1595146282 -1147404293 2013265663</internalNodes>
          <leafValues>
            -4.4757431745529175e-01 3.4982141852378845e-01</leafValues></_>
        <_>
          <internalNodes>
            0 -1 12 -228852737 -262970757 -708324557 273740631
            1366670877 -94158837 -449347005 -193463469</internalNodes>
          <leafValues>
            -4.4128823280334473e-01 3.0947756767272949e-01</leafValues></_>
        <_>
          <internalNodes>
            0 -1 121 -610271984 -1073692672 -199765231 -855263615
            -1299210080 -1879040000 -1735396797 -1886655997</internalNodes>
          <leafValues>
            -3.8871517777442932e-01 3.2595318555831909e-01</leafValues></_>
        <_>
          <internalNodes>
            0 -1 130 -245631760 -773641921 1478182399 2102368703
            -1163156352 -1128707328 139266056 210758415</internalNodes>
          <leafValues>
            -4.2988148331642151e-01 2.9334795475006104e-01</leafValues></_>
        <_>
          <internalNodes>
            0 -1 103 -352343034 -2133426153 -363680986 -419632789
            -213388955 -378803891 -146347740 -135470644</internalNodes>
          <leafValues>
            -5.3634375333786011e-01 2.3030145466327667e-01</leafValues></_>
        <_>
          <internalNodes>
            0 -1 47 -22545025 -688988769 -1248071241 -219088202
            1361047415 -1088434182 1708216676 -50928140</internalNodes>
          <leafValues>
            -4.7214826941490173e-01 2.2699613869190216e-01</leafValues></_>
        <_>
          <internalNodes>
            0 -1 141 -640616996 2075138256 889740537 1058022768
            -634739460 -1195858772 -1459951953 -1078202881</internalNodes>
          <leafValues>
            -2.7330040931701660e-01 4.2887157201766968e-01</leafValues></_>
        <_>
          <internalNodes>
            0 -1 16 -296844358 -10293262 5637232 -68025312 24587255
            -1157460842 1426002687 -65353</internalNodes>
          <leafValues>
            -2.7260786294937134e-01 3.9685404300689697e-01</leafValues></_>
        <_>
          <internalNodes>
            0 -1 109 778961175 215097683 -996179523 -293928673
            -269000845 -4498209 -286701713 -2167949</internalNodes>
          <leafValues>
            -3.9690455794334412e-01 2.7744987607002258e-01</leafValues></_>
        <_>
          <internalNodes>
            0 -1 174 -270009409 -2105368361 1076043923 -522285045
            -1046503181 -1062558793 1142379760 -990387465</internalNodes>
          <leafValues>
            -3.7289315462112427e-01 2.7219203114509583e-01</leafValues></_>
        <_>
          <internalNodes>
            0 -1 126 -1576613394 -611277923 1096700 -1658319857
            1610747886 -73126354 1450929407 1936935490</internalNodes>
          <leafValues>
            -4.0565732121467590e-01 2.6346242427825928e-01</leafValues></_>
        <_>
          <internalNodes>
            0 -1 119 268985680 -556267780 -1278627523 2138641273
            532480956 -112283716 -1430773831 799542814</internalNodes>
          <leafValues>
            -3.9350870251655579e-01 2.4985544383525848e-01</leafValues></_></weakClassifiers></_>
    <!-- stage 12 -->
    <_>
      <maxWeakCount>17</maxWeakCount>
      <stageThreshold>-2.5795660912990570e-02</stageThreshold>
      <weakClassifiers>
        <_>
          <internalNodes>
            0 -1 136 12583048 334627490 12452596 153617023 34341516
            1005856506 775032522 997917291</internalNodes>
          <leafValues>
            1.1603053659200668e-01 9.4560855627059937e-01</leafValues></_>
        <_>
          <internalNodes>
            0 -1 113 -615515387 -101233145 804463389 -27617 -457583363
            -1442138613 -492615403 -10006271</internalNodes>
          <leafValues>
            5.6180063635110855e-02 8.1106239557266235e-01</leafValues></_>
        <_>
          <internalNodes>
            0 -1 54 -1433793536 -105564903 -1108816419 -6347811
            -1161882843 -1162294109 -30467361 1002113835</internalNodes>
          <leafValues>
            -2.7433243393898010e-01 5.8332914113998413e-01</leafValues></_>
        <_>
          <internalNodes>
            0 -1 68 -674761803 -715929197 -1711409887 1431829331
            -120208897 -714109055 -838931477 -1997542485</internalNodes>
          <leafValues>
            -3.1043562293052673e-01 5.5700069665908813e-01</leafValues></_>
        <_>
          <internalNodes>
            0 -1 10 -269485121 -322002894 1628444757 -212385256 34063291
            145866 1426199365 1307570943</internalNodes>
          <leafValues>
            -4.5684853196144104e-01 3.7248376011848450e-01</leafValues></_>
        <_>
          <internalNodes>
            0 -1 45 1426572544 -241860285 -1046908652 -571653801
            1612970712 -142573424 -1996453636 -69343013</internalNodes>
          <leafValues>
            -5.0433725118637085e-01 3.1236857175827026e-01</leafValues></_>
        <_>
          <internalNodes>
            0 -1 172 -19982763 -15495155 1217565373 869126491
            -1147938800 1510490176 -1094153576 -1162089541</internalNodes>
          <leafValues>
            -3.8312384486198425e-01 3.9210724830627441e-01</leafValues></_>
        <_>
          <internalNodes>
            0 -1 147 1436006399 1318126593 1615942064 1145352572
            -917253969 -662241117 -788713312 -655632129</internalNodes>
          <leafValues>
            -4.8990082740783691e-01 2.7900397777557373e-01</leafValues></_>
        <_>
          <internalNodes>
            0 -1 117 -127932849 1371735169 -1039443237 -746340152
            1898651733 1981841960 -95360850 -77088709</internalNodes>
          <leafValues>
            -3.8328731060028076e-01 3.4625664353370667e-01</leafValues></_>
        <_>
          <internalNodes>
            0 -1 49 -24130561 -84098169 -2140888321 -255356305
            -1022638961 -2007937917 -507330358 -254553585</internalNodes>
          <leafValues>
            -2.7410829067230225e-01 5.1645940542221069e-01</leafValues></_>
        <_>
          <internalNodes>
            0 -1 4 -616341665 -535993475 119560459 35742723 1429596675
            1996131049 -349450169 1196669505</internalNodes>
          <leafValues>
            -4.7299218177795410e-01 2.9013693332672119e-01</leafValues></_>
        <_>
          <internalNodes>
            0 -1 105 -178793473 2001666382 1074155779 -417070505
            -1023092481 -597032938 1619583722 -301930934</internalNodes>
          <leafValues>
            -3.7191194295883179e-01 3.1910377740859985e-01</leafValues></_>
        <_>
          <internalNodes>
            0 -1 90 -1464848588 -1151959723 -1122927145 -1747121967
            -1449543959 -74920775 -54191873 -1146417811</internalNodes>
          <leafValues>
            -3.0504772067070007e-01 4.0333446860313416e-01</leafValues></_>
        <_>
          <internalNodes>
            0 -1 122 -649463983 -382164877 700113151 -545771949
            -1953789259 -302592002 1763588077 -615840443</internalNodes>
          <leafValues>
            -2.9918158054351807e-01 3.8856136798858643e-01</leafValues></_>
        <_>
          <internalNodes>
            0 -1 85 -1007231506 -2133552785 352521820 -570630028
            -2113666098 44073092 554376074 518062160</internalNodes>
          <leafValues>
            -4.2552015185356140e-01 2.7003413438796997e-01</leafValues></_>
        <_>
          <internalNodes>
            0 -1 128 -56307523 459294040 205594153 286598605 -1951730520
            -123206224 783910029 463964971</internalNodes>
          <leafValues>
            -2.6568967103958130e-01 4.1941612958908081e-01</leafValues></_>
        <_>
          <internalNodes>
            0 -1 59 1066038581 -41908584 -1027338020 -44285164 465587002
            -1161154432 -1265600069 -1074067430</internalNodes>
          <leafValues>
            -4.3937554955482483e-01 2.6759055256843567e-01</leafValues></_></weakClassifiers></_>
    <!-- stage 13 -->
    <_>
      <maxWeakCount>15</maxWeakCount>
      <stageThreshold>9.1488111019134521e-01</stageThreshold>
      <weakClassifiers>
        <_>
          <internalNodes>
            0 -1 96 1359282176 1249707020 829424644 392449164 290783284
            -159431636 1092681728 1090584576</internalNodes>
          <leafValues>
            4.3206521868705750e-01 9.7847610712051392e-01</leafValues></_>
        <_>
          <internalNodes>
            0 -1 51 12587120 -1997785856 -1082442119 -1176762988
            372286873 -626741258 -1628631555 671092756</internalNodes>
          <leafValues>
            1.6768707334995270e-01 8.9141565561294556e-01</leafValues></_>
        <_>
          <internalNodes>
            0 -1 152 -800523624 -796356608 1039733029 -232066784
            -861757254 -366967990 -993857378 -1441596502</internalNodes>
          <leafValues>
            -1.4760386943817139e-01 7.2259849309921265e-01</leafValues></_>
        <_>
          <internalNodes>
            0 -1 5 1101521795 537207849 16777791 -2017214142 1208434803
            397316 1615490851 2034496231</internalNodes>
          <leafValues>
            -4.6821215748786926e-01 4.3944457173347473e-01</leafValues></_>
        <_>
          <internalNodes>
            0 -1 57 -574895749 -803535805 -578783403 -992622719
            -1051228726 -456859860 -33321437 -573977831</internalNodes>
          <leafValues>
            -3.8526439666748047e-01 5.1223540306091309e-01</leafValues></_>
        <_>
          <internalNodes>
            0 -1 76 1527378311 -619086084 -1809810785 -779050009
            1332165866 -1102090562 -1790123601 -782768210</internalNodes>
          <leafValues>
            -3.5167387127876282e-01 5.1957011222839355e-01</leafValues></_>
        <_>
          <internalNodes>
            0 -1 37 -230687789 -771571711 4198739 -771227297 -1568505599
            -527859701 1076549752 -98380782</internalNodes>
          <leafValues>
            -4.7192916274070740e-01 3.9349913597106934e-01</leafValues></_>
        <_>
          <internalNodes>
            0 -1 86 -299978017 -1859633006 18973725 -1820195950 16984216
            -2002775935 419653883 761475107</internalNodes>
          <leafValues>
            -3.7018030881881714e-01 4.3711861968040466e-01</leafValues></_>
        <_>
          <internalNodes>
            0 -1 167 -105410510 33718596 1683853 -305086460 -599162742
            412485705 -1736392561 -540179256</internalNodes>
          <leafValues>
            -4.1970375180244446e-01 4.0910473465919495e-01</leafValues></_>
        <_>
          <internalNodes>
            0 -1 163 1402030148 201671041 1346384212 -1207779102
            -805188748 -1740406776 -1551203760 -89474688</internalNodes>
          <leafValues>
            -5.6421649456024170e-01 2.8639882802963257e-01</leafValues></_>
        <_>
          <internalNodes>
            0 -1 39 -182398764 -643919792 191226961 -712729966 763403141
            -1904759033 -2126453539 -1175267</internalNodes>
          <leafValues>
            -3.4168657660484314e-01 4.9307873845100403e-01</leafValues></_>
        <_>
          <internalNodes>
            0 -1 60 -1438089216 -1967472562 -2130624255 1124155779
            -920011915 -276717176 -2146725607 -80000743</internalNodes>
          <leafValues>
            -4.5139321684837341e-01 3.5101139545440674e-01</leafValues></_>
        <_>
          <internalNodes>
            0 -1 73 -430783242 -723598310 1089994842 -1299937727
            1078640776 -624786388 -1857991782 -541375985</internalNodes>
          <leafValues>
            -3.3020633459091187e-01 4.8047074675559998e-01</leafValues></_>
        <_>
          <internalNodes>
            0 -1 166 -737119140 276825345 -777813839 1023773975
            -525817608 -1327759012 -1031109896 -1999914097</internalNodes>
          <leafValues>
            -3.0687496066093445e-01 4.7056308388710022e-01</leafValues></_>
        <_>
          <internalNodes>
            0 -1 177 -1044124229 -1979293368 536924305 -1323900926
            411075523 -2147374975 4376609 -932850496</internalNodes>
          <leafValues>
            -3.9444565773010254e-01 3.8639551401138306e-01</leafValues></_></weakClassifiers></_>
    <!-- stage 14 -->
    <_>
      <maxWeakCount>12</maxWeakCount>
      <stageThreshold>1.6775354146957397e+00</stageThreshold>
      <weakClassifiers>
        <_>
          <internalNodes>
            0 -1 33 50331648 0 16777280 0 0 8 673792 0</internalNodes>
          <leafValues>
            -8.3333331346511841e-01 9.9176084995269775e-01</leafValues></_>
        <_>
          <internalNodes>
            0 -1 133 -2147450752 71321636 206588001 64576 136839176
            1284601076 74686722 774007877</internalNodes>
          <leafValues>
            7.5212553143501282e-02 9.5309942960739136e-01</leafValues></_>
        <_>
          <internalNodes>
            0 -1 125 -115163066 1946165249 576856577 2008514563
            -738148222 536871560 59993 536952899</internalNodes>
          <leafValues>
            -8.7803944945335388e-02 8.2620561122894287e-01</leafValues></_>
        <_>
          <internalNodes>
            0 -1 154 -2145353728 -1610479936 -1152906234 -251658237
            -1610545734 -2145343211 -1878925174 -1411145573</internalNodes>
          <leafValues>
            -2.3649099469184875e-01 7.2116160392761230e-01</leafValues></_>
        <_>
          <internalNodes>
            0 -1 19 -2067087101 -2037891070 -2147221504 -1810366331
            33718415 -1610088448 1082130955 -875576192</internalNodes>
          <leafValues>
            -4.8397725820541382e-01 5.5288195610046387e-01</leafValues></_>
        <_>
          <internalNodes>
            0 -1 92 -535502814 1611858193 16777680 1140981833
            -2113896101 -1308622848 180665 -376192085</internalNodes>
          <leafValues>
            -5.3846776485443115e-01 4.7931793332099915e-01</leafValues></_>
        <_>
          <internalNodes>
            0 -1 21 -362917547 1476509781 -2130465775 270323968 1066240
            -1966050088 -1051818743 -138182080</internalNodes>
          <leafValues>
            -4.2697089910507202e-01 5.5350720882415771e-01</leafValues></_>
        <_>
          <internalNodes>
            0 -1 106 1092210864 -234618752 -2147466983 -717209084
            -2146908088 -2013265916 8456200 772735051</internalNodes>
          <leafValues>
            -4.8141244053840637e-01 4.9176049232482910e-01</leafValues></_>
        <_>
          <internalNodes>
            0 -1 178 -216306677 1476460553 65555 314933250 212992
            1811939329 -2147343853 1879805195</internalNodes>
          <leafValues>
            -5.2900385856628418e-01 4.5178371667861938e-01</leafValues></_>
        <_>
          <internalNodes>
            0 -1 72 -536854158 -132120045 1176567824 54591490 1744831566
            -1711274992 -909633093 -1114914489</internalNodes>
          <leafValues>
            -3.6792132258415222e-01 6.1153268814086914e-01</leafValues></_>
        <_>
          <internalNodes>
            0 -1 156 -1568007678 -1286471678 -805306086 1753874450
            136351744 -1610596222 -402407256 -764280790</internalNodes>
          <leafValues>
            -4.8752957582473755e-01 4.4081264734268188e-01</leafValues></_>
        <_>
          <internalNodes>
            0 -1 35 1263005826 1493385226 -1069480960 1348599808
            1091878218 1242136450 -543985764 -653352571</internalNodes>
          <leafValues>
            -4.2258262634277344e-01 5.2011293172836304e-01</leafValues></_></weakClassifiers></_>
    <!-- stage 15 -->
    <_>
      <maxWeakCount>8</maxWeakCount>
      <stageThreshold>1.9242156744003296e+00</stageThreshold>
      <weakClassifiers>
        <_>
          <internalNodes>
            0 -1 129 0 1 65536 8388609 0 0 0 0</internalNodes>
          <leafValues>
            -7.5000000000000000e-01 9.9753737449645996e-01</leafValues></_>
        <_>
          <internalNodes>
            0 -1 161 15204352 145752064 728238112 145229921 70778896
            67026544 2629672 536871952</internalNodes>
          <leafValues>
            4.2158409953117371e-02 9.8525667190551758e-01</leafValues></_>
        <_>
          <internalNodes>
            0 -1 69 1073752450 285280768 268447940 16777216 67372936
            2048 8800 1074388992</internalNodes>
          <leafValues>
            -4.0089726448059082e-02 9.3708699941635132e-01</leafValues></_>
        <_>
          <internalNodes>
            0 -1 23 -2130705918 33841152 117441024 553648128 100697794
            536904704 134218881 -939323383</internalNodes>
          <leafValues>
            -1.9270385801792145e-01 8.5910153388977051e-01</leafValues></_>
        <_>
          <internalNodes>
            0 -1 81 4268048 67108864 -1362851055 -1040154591 1347421344
            -2147483647 878053531 135118858</internalNodes>
          <leafValues>
            -4.5125973224639893e-01 7.6024985313415527e-01</leafValues></_>
        <_>
          <internalNodes>
            0 -1 144 -796262199 -1879048184 294916 -780136446
            -2139062262 -1056956288 -2147483638 251875394</internalNodes>
          <leafValues>
            -5.4046243429183960e-01 7.1882182359695435e-01</leafValues></_>
        <_>
          <internalNodes>
            0 -1 83 269029383 1589182464 201869373 17342080 665690249
            248385310 8675586 -1878966110</internalNodes>
          <leafValues>
            -5.4715710878372192e-01 6.7972254753112793e-01</leafValues></_>
        <_>
          <internalNodes>
            0 -1 30 -805109552 65538 2097170 -1069445120 142639168
            -2147483520 35087 -1207205755</internalNodes>
          <leafValues>
            -5.2336657047271729e-01 7.0944505929946899e-01</leafValues></_></weakClassifiers></_></stages>
  <features>
    <_>
      <rect>
        0 0 2 1</rect></_>
    <_>
      <rect>
        0 0 2 2</rect></_>
    <_>
      <rect>
        0 0 2 3</rect></_>
    <_>
      <rect>
        0 0 3 1</rect></_>
    <_>
      <rect>
        0 2 6 6</rect></_>
    <_>
      <rect>
        0 3 2 3</rect></_>
    <_>
      <rect>
        0 3 2 4</rect></_>
    <_>
      <rect>
        0 6 2 4</rect></_>
    <_>
      <rect>
        0 14 4 3</rect></_>
    <_>
      <rect>
        0 15 3 3</rect></_>
    <_>
      <rect>
        1 0 2 2</rect></_>
    <_>
      <rect>
        1 6 2 3</rect></_>
    <_>
      <rect>
        1 12 2 3</rect></_>
    <_>
      <rect>
        1 19 8 2</rect></_>
    <_>
      <rect>
        2 2 4 7</rect></_>
    <_>
      <rect>
        2 3 1 1</rect></_>
    <_>
      <rect>
        2 5 2 1</rect></_>
    <_>
      <rect>
        2 7 3 6</rect></_>
    <_>
      <rect>
        2 17 2 3</rect></_>
    <_>
      <rect>
        3 0 1 2</rect></_>
    <_>
      <rect>
        3 1 2 5</rect></_>
    <_>
      <rect>
        3 1 5 7</rect></_>
    <_>
      <rect>
        3 3 4 4</rect></_>
    <_>
      <rect>
        3 4 1 1</rect></_>
    <_>
      <rect>
        3 10 3 4</rect></_>
    <_>
      <rect>
        3 14 1 1</rect></_>
    <_>
      <rect>
        3 15 1 1</rect></_>
    <_>
      <rect>
        3 16 2 1</rect></_>
    <_>
      <rect>
        3 17 1 1</rect></_>
    <_>
      <rect>
        3 20 2 1</rect></_>
    <_>
      <rect>
        3 20 4 2</rect></_>
    <_>
      <rect>
        3 20 7 2</rect></_>
    <_>
      <rect>
        4 0 2 2</rect></_>
    <_>
      <rect>
        4 0 3 6</rect></_>
    <_>
      <rect>
        4 2 3 6</rect></_>
    <_>
      <rect>
        4 5 3 5</rect></_>
    <_>
      <rect>
        4 15 1 1</rect></_>
    <_>
      <rect>
        4 18 1 2</rect></_>
    <_>
      <rect>
        5 2 3 5</rect></_>
    <_>
      <rect>
        5 7 1 1</rect></_>
    <_>
      <rect>
        5 7 2 2</rect></_>
    <_>
      <rect>
        5 7 2 5</rect></_>
    <_>
      <rect>
        5 7 5 2</rect></_>
    <_>
      <rect>
        5 8 2 5</rect></_>
    <_>
      <rect>
        5 9 3 2</rect></_>
    <_>
      <rect>
        5 11 2 2</rect></_>
    <_>
      <rect>
        5 14 1 1</rect></_>
    <_>
      <rect>
        5 16 1 1</rect></_>
    <_>
      <rect>
        5 18 4 2</rect></_>
    <_>
      <rect>
        5 23 2 1</rect></_>
    <_>
      <rect>
        6 0 1 1</rect></_>
    <_>
      <rect>
        6 4 1 1</rect></_>
    <_>
      <rect>
        6 5 1 2</rect></_>
    <_>
      <rect>
        6 5 3 7</rect></_>
    <_>
      <rect>
        6 6 1 1</rect></_>
    <_>
      <rect>
        6 6 2 6</rect></_>
    <_>
      <rect>
        6 7 2 1</rect></_>
    <_>
      <rect>
        6 8 4 6</rect></_>
    <_>
      <rect>
        6 9 5 1</rect></_>
    <_>
      <rect>
        6 10 1 1</rect></_>
    <_>
      <rect>
        7 0 2 2</rect></_>
    <_>
      <rect>
        7 1 1 2</rect></_>
    <_>
      <rect>
        7 1 4 5</rect></_>
    <_>
      <rect>
        7 2 4 3</rect></_>
    <_>
      <rect>
        7 3 4 3</rect></_>
    <_>
      <rect>
        7 4 2 4</rect></_>
    <_>
      <rect>
        7 6 4 5</rect></_>
    <_>
      <rect>
        7 7 1 1</rect></_>
    <_>
      <rect>
        7 7 2 1</rect></_>
    <_>
      <rect>
        7 7 4 1</rect></_>
    <_>
      <rect>
        7 8 2 1</rect></_>
    <_>
      <rect>
        7 10 1 1</rect></_>
    <_>
      <rect>
        7 21 2 1</rect></_>
    <_>
      <rect>
        7 23 2 1</rect></_>
    <_>
      <rect>
        8 1 4 5</rect></_>
    <_>
      <rect>
        8 2 1 1</rect></_>
    <_>
      <rect>
        8 3 3 3</rect></_>
    <_>
      <rect>
        8 4 1 1</rect></_>
    <_>
      <rect>
        8 10 1 1</rect></_>
    <_>
      <rect>
        8 10 2 1</rect></_>
    <_>
      <rect>
        8 12 2 2</rect></_>
    <_>
      <rect>
        8 15 4 2</rect></_>
    <_>
      <rect>
        9 0 3 7</rect></_>
    <_>
      <rect>
        9 1 3 4</rect></_>
    <_>
      <rect>
        9 4 1 1</rect></_>
    <_>
      <rect>
        9 11 2 2</rect></_>
    <_>
      <rect>
        9 13 1 2</rect></_>
    <_>
      <rect>
        10 3 1 3</rect></_>
    <_>
      <rect>
        10 4 1 2</rect></_>
    <_>
      <rect>
        10 9 1 1</rect></_>
    <_>
      <rect>
        10 20 1 1</rect></_>
    <_>
      <rect>
        11 6 1 4</rect></_>
    <_>
      <rect>
        11 7 1 1</rect></_>
    <_>
      <rect>
        11 8 1 1</rect></_>
    <_>
      <rect>
        11 9 1 1</rect></_>
    <_>
      <rect>
        11 20 1 1</rect></_>
    <_>
      <rect>
        12 0 2 7</rect></_>
    <_>
      <rect>
        12 2 3 5</rect></_>
    <_>
      <rect>
        12 6 1 4</rect></_>
    <_>
      <rect>
        12 7 1 4</rect></_>
    <_>
      <rect>
        12 8 1 1</rect></_>
    <_>
      <rect>
        12 9 1 1</rect></_>
    <_>
      <rect>
        12 9 3 2</rect></_>
    <_>
      <rect>
        12 10 1 1</rect></_>
    <_>
      <rect>
        12 10 2 1</rect></_>
    <_>
      <rect>
        12 11 3 5</rect></_>
    <_>
      <rect>
        12 17 2 2</rect></_>
    <_>
      <rect>
        12 19 1 1</rect></_>
    <_>
      <rect>
        12 20 1 1</rect></_>
    <_>
      <rect>
        13 1 2 1</rect></_>
    <_>
      <rect>
        13 2 2 4</rect></_>
    <_>
      <rect>
        13 2 3 7</rect></_>
    <_>
      <rect>
        13 3 3 4</rect></_>
    <_>
      <rect>
        13 4 1 2</rect></_>
    <_>
      <rect>
        13 9 1 1</rect></_>
    <_>
      <rect>
        13 9 2 1</rect></_>
    <_>
      <rect>
        13 9 2 5</rect></_>
    <_>
      <rect>
        13 10 1 1</rect></_>
    <_>
      <rect>
        13 12 2 2</rect></_>
    <_>
      <rect>
        13 19 1 1</rect></_>
    <_>
      <rect>
        13 20 1 1</rect></_>
    <_>
      <rect>
        13 20 3 2</rect></_>
    <_>
      <rect>
        14 1 2 2</rect></_>
    <_>
      <rect>
        14 3 1 2</rect></_>
    <_>
      <rect>
        14 4 1 1</rect></_>
    <_>
      <rect>
        14 5 2 2</rect></_>
    <_>
      <rect>
        14 8 2 1</rect></_>
    <_>
      <rect>
        14 8 4 5</rect></_>
    <_>
      <rect>
        14 14 1 2</rect></_>
    <_>
      <rect>
        15 0 2 5</rect></_>
    <_>
      <rect>
        15 3 3 2</rect></_>
    <_>
      <rect>
        15 4 1 1</rect></_>
    <_>
      <rect>
        15 5 2 7</rect></_>
    <_>
      <rect>
        15 5 3 7</rect></_>
    <_>
      <rect>
        15 6 2 6</rect></_>
    <_>
      <rect>
        15 7 2 2</rect></_>
    <_>
      <rect>
        15 8 2 2</rect></_>
    <_>
      <rect>
        15 8 2 5</rect></_>
    <_>
      <rect>
        15 8 3 6</rect></_>
    <_>
      <rect>
        15 9 2 3</rect></_>
    <_>
      <rect>
        15 9 3 4</rect></_>
    <_>
      <rect>
        15 15 1 2</rect></_>
    <_>
      <rect>
        16 3 1 1</rect></_>
    <_>
      <rect>
        16 7 1 1</rect></_>
    <_>
      <rect>
        16 8 1 1</rect></_>
    <_>
      <rect>
        16 10 1 1</rect></_>
    <_>
      <rect>
        16 11 1 1</rect></_>
    <_>
      <rect>
        16 15 3 2</rect></_>
    <_>
      <rect>
        16 23 2 1</rect></_>
    <_>
      <rect>
        17 0 1 2</rect></_>
    <_>
      <rect>
        17 0 3 1</rect></_>
    <_>
      <rect>
        17 4 1 1</rect></_>
    <_>
      <rect>
        17 5 1 2</rect></_>
    <_>
      <rect>
        17 5 2 2</rect></_>
    <_>
      <rect>
        17 6 1 1</rect></_>
    <_>
      <rect>
        17 10 1 1</rect></_>
    <_>
      <rect>
        17 13 1 1</rect></_>
    <_>
      <rect>
        17 13 3 4</rect></_>
    <_>
      <rect>
        17 16 3 3</rect></_>
    <_>
      <rect>
        18 0 2 1</rect></_>
    <_>
      <rect>
        18 1 2 4</rect></_>
    <_>
      <rect>
        18 7 1 2</rect></_>
    <_>
      <rect>
        18 10 1 1</rect></_>
    <_>
      <rect>
        18 14 1 1</rect></_>
    <_>
      <rect>
        19 0 2 1</rect></_>
    <_>
      <rect>
        19 0 2 2</rect></_>
    <_>
      <rect>
        19 7 1 1</rect></_>
    <_>
      <rect>
        19 7 2 3</rect></_>
    <_>
      <rect>
        19 15 1 1</rect></_>
    <_>
      <rect>
        20 0 2 2</rect></_>
    <_>
      <rect>
        20 0 2 3</rect></_>
    <_>
      <rect>
        20 2 2 4</rect></_>
    <_>
      <rect>
        20 4 1 1</rect></_>
    <_>
      <rect>
        20 7 2 4</rect></_>
    <_>
      <rect>
        20 13 2 3</rect></_>
    <_>
      <rect>
        20 16 1 1</rect></_>
    <_>
      <rect>
        20 18 1 1</rect></_>
    <_>
      <rect>
        20 19 1 2</rect></_>
    <_>
      <rect>
        21 1 1 2</rect></_>
    <_>
      <rect>
        21 15 1 1</rect></_></features></cascade>
</opencv_storage>
